{"learner":{"attributes":{},"feature_names":[],"feature_types":[],"gradient_booster":{"model":{"cats":{"enc":[],"feature_segments":[],"sorted_idx":[]},"gbtree_model_param":{"num_parallel_tree":"1","num_trees":"50"},"iteration_indptr":[0,1,2,3,4,5,6,7,8,9,10,11,12,13,14,15,16,17,18,19,20,21,22,23,24,25,26,27,28,29,30,31,32,33,34,35,36,37,38,39,40,41,42,43,44,45,46,47,48,49,50],"tree_info":[0,0,0,0,0,0,0,0,0,0,0,0,0,0,0,0,0,0,0,0,0,0,0,0,0,0,0,0,0,0,0,0,0,0,0,0,0,0,0,0,0,0,0,0,0,0,0,0,0,0],"trees":[{"base_weights":[3.5335682E-2,-1.8371645E0,1.610937E0,-2.1921184E-2,-9.9147126E-2,1.2528385E0,9.367513E-2,-2.0733655E-3,1.6080871E0,8.963333E-2,3.736018E-2],"categories":[],"categories_nodes":[],"categories_segments":[],"categories_sizes":[],"default_left":[0,0,0,0,0,0,0,0,0,0,0],"id":0,"left_children":[1,3,5,-1,-1,7,-1,-1,9,-1,-1],"loss_changes":[8.378984E2,2.5594208E1,1.2152893E1,0E0,0E0,3.1451881E1,0E0,0E0,7.1749725E0,0E0,0E0],"parents":[2147483647,0,0,1,1,2,2,5,5,8,8],"right_children":[2,4,6,-1,-1,8,-1,-1,10,-1,-1],"split_conditions":[1E0,-2.1151233E0,8.246018E0,-2.1921184E-2,-9.9147126E-2,2.0112178E0,9.367513E-2,-2.0733655E-3,3.419E3,8.963333E-2,3.736018E-2],"split_indices":[7,17,13,0,0,15,0,0,9,0,0],"split_type":[0,0,0,0,0,0,0,0,0,0,0],"sum_hessian":[2.82E2,1.2878334E2,1.5321666E2,1.2533333E1,1.1625E2,6.725833E1,8.5958336E1,1.4675E1,5.2583332E1,4.2408333E1,1.0175E1],"tree_param":{"num_deleted":"0","num_feature":"52","num_nodes":"11","size_leaf_vector":"1"}},{"base_weights":[1.0709039E-1,-1.744803E0,1.450017E0,-9.46249E-2,-1.4371048E-3,1.5577446E0,1.7459428E-2,1.3244354E0,9.33133E-2,4.6457028E-1,1.6567628E0,-2.7858505E-2,7.296511E-2,9.081387E-2,6.096362E-2],"categories":[],"categories_nodes":[],"categories_segments":[],"categories_sizes":[],"default_left":[0,0,1,0,0,0,0,0,0,1,1,0,0,0,0],"id":1,"left_children":[1,3,5,-1,-1,7,-1,9,-1,11,13,-1,-1,-1,-1],"loss_changes":[7.4679266E2,3.1943787E1,2.0092712E1,0E0,0E0,8.916809E0,0E0,2.5958282E1,0E0,2.8724886E1,2.4661255E0,0E0,0E0,0E0,0E0],"parents":[2147483647,0,0,1,1,2,2,5,5,7,7,9,9,10,10],"right_children":[2,4,6,-1,-1,8,-1,10,-1,12,14,-1,-1,-1,-1],"split_conditions":[1E0,1.8231809E0,5.2E1,-9.46249E-2,-1.4371048E-3,1.1482587E1,1.7459428E-2,2.4559014E0,9.33133E-2,7.355E3,6.316E3,-2.7858505E-2,7.296511E-2,9.081387E-2,6.096362E-2],"split_indices":[7,19,32,0,0,13,0,15,0,33,33,0,0,0,0],"split_type":[0,0,0,0,0,0,0,0,0,0,0,0,0,0,0],"sum_hessian":[2.982664E2,1.25249E2,1.730174E2,1.15228874E2,1.0020131E1,1.57217E2,1.5800394E1,9.2534004E1,6.4683E1,2.646258E1,6.607143E1,1.3271065E1,1.3191515E1,4.6108204E1,1.9963219E1],"tree_param":{"num_deleted":"0","num_feature":"52","num_nodes":"15","size_leaf_vector":"1"}},{"base_weights":[-6.987811E-2,-9.079149E-2,1.2287989E0,-1.6516207E-1,1.5033811E0,5.761819E-2,-6.1571296E-2,1.0162846E0,8.184335E-2,4.151357E-3,8.479766E-2],"categories":[],"categories_nodes":[],"categories_segments":[],"categories_sizes":[],"default_left":[0,0,0,0,0,0,0,0,0,0,0],"id":2,"left_children":[1,-1,3,5,7,-1,-1,9,-1,-1,-1],"loss_changes":[6.2318665E2,0E0,6.058673E1,3.912914E1,6.9060974E0,0E0,0E0,1.9514538E1,0E0,0E0,0E0],"parents":[2147483647,0,0,2,2,3,3,4,4,7,7],"right_children":[2,-1,4,6,8,-1,-1,10,-1,-1,-1],"split_conditions":[1.236E3,-9.079149E-2,3.172475E0,1.661E3,-7.0146525E-1,5.761819E-2,-6.1571296E-2,9.34286E0,8.184335E-2,4.151357E-3,8.479766E-2],"split_indices":[9,0,13,9,20,0,0,13,0,0,0],"split_type":[0,0,0,0,0,0,0,0,0,0,0],"sum_hessian":[2.7285898E2,1.1621729E2,1.5664168E2,2.5843166E1,1.3079851E2,1.1523472E1,1.43196945E1,2.9987186E1,1.00811325E2,1.3109121E1,1.6878063E1],"tree_param":{"num_deleted":"0","num_feature":"52","num_nodes":"11","size_leaf_vector":"1"}},{"base_weights":[6.519751E-2,-8.713078E-2,1.2997531E0,-8.741825E-3,1.4547067E0,1.0891894E0,8.459865E-2,-2.059528E-2,1.4349948E0,8.316399E-2,3.450201E-2],"categories":[],"categories_nodes":[],"categories_segments":[],"categories_sizes":[],"default_left":[0,0,0,0,0,0,0,0,0,0,0],"id":3,"left_children":[1,-1,3,-1,5,7,-1,-1,9,-1,-1],"loss_changes":[6.594121E2,0E0,4.0362457E1,0E0,1.1941986E1,3.4524895E1,0E0,0E0,7.9259567E0,0E0,0E0],"parents":[2147483647,0,0,2,2,4,4,5,5,8,8],"right_children":[2,-1,4,-1,6,8,-1,-1,10,-1,-1],"split_conditions":[1.2795E3,-8.713078E-2,1E0,-8.741825E-3,8.246018E0,2.0112178E0,8.459865E-2,-2.059528E-2,9.96E2,8.316399E-2,3.450201E-2],"split_indices":[9,0,7,0,13,15,0,0,41,0,0],"split_type":[0,0,0,0,0,0,0,0,0,0,0],"sum_hessian":[2.9344113E2,1.189078E2,1.7453334E2,1.658421E1,1.5794914E2,6.437214E1,9.3576996E1,1.201696E1,5.235518E1,3.9131065E1,1.32241125E1],"tree_param":{"num_deleted":"0","num_feature":"52","num_nodes":"11","size_leaf_vector":"1"}},{"base_weights":[-2.8757593E-3,-1.5522132E0,1.316634E0,-8.4355E-2,-1.663817E-2,9.490236E-1,8.089473E-2,1.5560818E-1,1.2958977E0,5.6385826E-2,-4.7661524E-2,1.4848723E0,3.568242E-2,5.030315E-2,8.3247334E-2],"categories":[],"categories_nodes":[],"categories_segments":[],"categories_sizes":[],"default_left":[0,0,0,0,0,0,0,0,0,0,0,0,0,0,0],"id":4,"left_children":[1,3,5,-1,-1,7,-1,9,11,-1,-1,13,-1,-1,-1],"loss_changes":[5.7375E2,2.0671082E1,1.5250122E1,0E0,0E0,1.9251972E1,0E0,2.5477533E1,4.3369064E0,0E0,0E0,1.4378052E0,0E0,0E0,0E0],"parents":[2147483647,0,0,1,1,2,2,5,5,7,7,8,8,11,11],"right_children":[2,4,6,-1,-1,8,-1,10,12,-1,-1,14,-1,-1,-1],"split_conditions":[1E0,1.0333787E0,8.895961E0,-8.4355E-2,-1.663817E-2,1.8317167E0,8.089473E-2,2.78E2,3.391E3,5.6385826E-2,-4.7661524E-2,2.2036848E0,3.568242E-2,5.030315E-2,8.3247334E-2],"split_indices":[7,16,13,0,0,15,0,23,9,0,0,13,0,0,0],"split_type":[0,0,0,0,0,0,0,0,0,0,0,0,0,0,0],"sum_hessian":[2.7864972E2,1.2808223E2,1.5056749E2,1.1498043E2,1.3101795E1,6.968508E1,8.0882416E1,2.1638744E1,4.8046333E1,1.1521196E1,1.0117548E1,3.510306E1,1.2943273E1,1.1393965E1,2.3709097E1],"tree_param":{"num_deleted":"0","num_feature":"52","num_nodes":"15","size_leaf_vector":"1"}},{"base_weights":[5.1525243E-2,-1.5049518E0,1.2775996E0,-8.174748E-2,2.2209832E-3,8.862072E-1,7.7363476E-2,-1.6020728E-2,1.2143327E0,7.5057015E-2,3.251057E-2],"categories":[],"categories_nodes":[],"categories_segments":[],"categories_sizes":[],"default_left":[0,0,0,0,0,0,0,0,0,0,0],"id":5,"left_children":[1,3,5,-1,-1,7,-1,-1,9,-1,-1],"loss_changes":[5.6935223E2,2.6553741E1,1.6240692E1,0E0,0E0,2.8266056E1,0E0,0E0,8.014084E0,0E0,0E0],"parents":[2147483647,0,0,1,1,2,2,5,5,8,8],"right_children":[2,4,6,-1,-1,8,-1,-1,10,-1,-1],"split_conditions":[1E0,6.4107614E0,8.246018E0,-8.174748E-2,2.2209832E-3,-6.4291346E-1,7.7363476E-2,-1.6020728E-2,6.6371214E-1,7.5057015E-2,3.251057E-2],"split_indices":[7,15,13,0,0,18,0,0,21,0,0],"split_type":[0,0,0,0,0,0,0,0,0,0,0],"sum_hessian":[2.9633932E2,1.3047563E2,1.658637E2,1.2032473E2,1.0150905E1,6.9409996E1,9.64537E1,1.4844724E1,5.4565273E1,3.5072746E1,1.9492527E1],"tree_param":{"num_deleted":"0","num_feature":"52","num_nodes":"11","size_leaf_vector":"1"}},{"base_weights":[-6.1369266E-2,-7.9080716E-2,1.0097792E0,4.7251397E-1,7.5004116E-2,-5.6120075E-2,8.41822E-1,1.2672234E0,-4.5919428E-3,8.6486137E-1,8.162112E-2,6.068608E-2,2.229375E-2],"categories":[],"categories_nodes":[],"categories_segments":[],"categories_sizes":[],"default_left":[0,0,0,0,0,0,1,0,0,0,0,0,0],"id":6,"left_children":[1,-1,3,5,-1,-1,7,9,-1,11,-1,-1,-1],"loss_changes":[4.1085443E2,0E0,3.8290863E1,4.341378E1,0E0,0E0,2.3596363E1,4.565796E0,0E0,2.5988064E0,0E0,0E0,0E0],"parents":[2147483647,0,0,2,2,3,3,6,6,7,7,9,9],"right_children":[2,-1,4,6,-1,-1,8,10,-1,12,-1,-1,-1],"split_conditions":[1.299E3,-7.9080716E-2,9.34286E0,1.9641984E0,7.5004116E-2,-5.6120075E-2,2.86E2,1.225135E0,-4.5919428E-3,3.6E1,8.162112E-2,6.068608E-2,2.229375E-2],"split_indices":[9,0,13,15,0,0,31,16,0,32,0,0,0],"split_type":[0,0,0,0,0,0,0,0,0,0,0,0,0],"sum_hessian":[2.5032355E2,1.03273865E2,1.4704968E2,7.110158E1,7.5948105E1,1.2984922E1,5.8116653E1,3.968007E1,1.8436583E1,2.0482E1,1.919807E1,1.0141275E1,1.0340724E1],"tree_param":{"num_deleted":"0","num_feature":"52","num_nodes":"13","size_leaf_vector":"1"}},{"base_weights":[-4.7660913E-2,-1.479475E0,1.1687458E0,-3.367056E-2,-7.72888E-2,7.977504E-1,7.4100696E-2,1.0796885E0,-2.712424E-2,1.3095614E0,1.8015174E-2,3.6882363E-2,7.525218E-2],"categories":[],"categories_nodes":[],"categories_segments":[],"categories_sizes":[],"default_left":[0,0,0,0,0,1,0,0,0,0,0,0,0],"id":7,"left_children":[1,3,5,-1,-1,7,-1,9,-1,11,-1,-1,-1],"loss_changes":[4.6556772E2,5.5202026E0,1.5617371E1,0E0,0E0,2.6410053E1,0E0,8.920891E0,0E0,3.6597366E0,0E0,0E0,0E0],"parents":[2147483647,0,0,1,1,2,2,5,5,7,7,9,9],"right_children":[2,4,6,-1,-1,8,-1,10,-1,12,-1,-1,-1],"split_conditions":[1E0,-1.062105E0,9.34286E0,-3.367056E-2,-7.72888E-2,3.47E2,7.4100696E-2,5.264054E-3,-2.712424E-2,1.20383106E-1,1.8015174E-2,3.6882363E-2,7.525218E-2],"split_indices":[7,21,13,0,0,31,0,17,0,22,0,0,0],"split_type":[0,0,0,0,0,0,0,0,0,0,0,0,0],"sum_hessian":[2.6531857E2,1.2176939E2,1.4354918E2,1.0102579E1,1.116668E2,6.7343056E1,7.620612E1,5.5799267E1,1.1543791E1,4.1665165E1,1.4134104E1,1.1829519E1,2.9835644E1],"tree_param":{"num_deleted":"0","num_feature":"52","num_nodes":"13","size_leaf_vector":"1"}},{"base_weights":[4.9856983E-2,-7.4734926E-2,1.0717872E0,1.3218088E-1,1.4085145E0,-6.969383E-2,1.1403209E0,2.8758485E-2,7.4918926E-2,7.654189E-2,3.770654E-2],"categories":[],"categories_nodes":[],"categories_segments":[],"categories_sizes":[],"default_left":[0,0,0,0,0,0,0,0,0,0,0],"id":8,"left_children":[1,-1,3,5,7,-1,9,-1,-1,-1,-1],"loss_changes":[4.144341E2,0E0,4.979901E1,6.741165E1,7.8402557E0,0E0,2.8140488E0,0E0,0E0,0E0,0E0],"parents":[2147483647,0,0,2,2,3,3,4,4,6,6],"right_children":[2,-1,4,6,8,-1,10,-1,-1,-1,-1],"split_conditions":[1.2795E3,-7.4734926E-2,-5.73418E-2,8.456444E-1,1E0,-6.969383E-2,-1.6319269E0,2.8758485E-2,7.4918926E-2,7.654189E-2,3.770654E-2],"split_indices":[9,0,20,18,7,0,21,0,0,0,0],"split_type":[0,0,0,0,0,0,0,0,0,0,0],"sum_hessian":[2.6054636E2,1.0356085E2,1.569855E2,4.1783916E1,1.152016E2,1.6470026E1,2.5313889E1,1.1933926E1,1.0326767E2,1.1112717E1,1.4201172E1],"tree_param":{"num_deleted":"0","num_feature":"52","num_nodes":"11","size_leaf_vector":"1"}},{"base_weights":[8.560863E-2,-7.2874404E-2,1.0511224E0,7.258258E-1,7.000571E-2,1.2719446E0,1.4387678E-1,8.3724535E-1,8.18789E-2,7.985601E-1,-5.828466E-2,5.9337277E-2,2.1025702E-2,6.18021E-2,8.311225E-3],"categories":[],"categories_nodes":[],"categories_segments":[],"categories_sizes":[],"default_left":[0,0,0,0,0,0,0,0,0,0,0,0,0,0,0],"id":9,"left_children":[1,-1,3,5,-1,7,9,11,-1,13,-1,-1,-1,-1,-1],"loss_changes":[3.8278275E2,0E0,1.6919281E1,2.6464184E1,0E0,5.483528E0,3.6698532E1,2.6685953E0,0E0,7.653013E0,0E0,0E0,0E0,0E0,0E0],"parents":[2147483647,0,0,2,2,3,3,5,5,6,6,7,7,9,9],"right_children":[2,-1,4,6,-1,8,10,12,-1,14,-1,-1,-1,-1,-1],"split_conditions":[1.2795E3,-7.2874404E-2,9.091746E0,-6.724892E-1,7.000571E-2,6.8E1,5E0,3.5E1,8.18789E-2,6.021E3,-5.828466E-2,5.9337277E-2,2.1025702E-2,6.18021E-2,8.311225E-3],"split_indices":[9,0,13,14,0,28,5,37,0,33,0,0,0,0,0],"split_type":[0,0,0,0,0,0,0,0,0,0,0,0,0,0,0],"sum_hessian":[2.548934E2,9.790724E1,1.5698616E2,8.284539E1,7.414076E1,4.212672E1,4.0718674E1,2.0748638E1,2.137808E1,2.7407341E1,1.3311331E1,1.0279651E1,1.0468987E1,1.5635313E1,1.1772028E1],"tree_param":{"num_deleted":"0","num_feature":"52","num_nodes":"15","size_leaf_vector":"1"}},{"base_weights":[-5.6362078E-2,-1.3673351E0,1.0520608E0,-7.2245084E-2,-3.1257063E-2,5.591788E-1,1.2362776E0,-5.0172437E-2,1.2143531E0,4.2545166E-2,6.631862E-2,4.0444523E-2,7.081618E-2],"categories":[],"categories_nodes":[],"categories_segments":[],"categories_sizes":[],"default_left":[0,0,0,0,0,0,0,0,0,0,0,0,0],"id":10,"left_children":[1,3,5,-1,-1,7,9,-1,11,-1,-1,-1,-1],"loss_changes":[3.4825476E2,5.416687E0,1.1102493E1,0E0,0E0,3.9267967E1,2.1255798E0,0E0,1.0358124E0,0E0,0E0,0E0,0E0],"parents":[2147483647,0,0,1,1,2,2,5,5,6,6,8,8],"right_children":[2,4,6,-1,-1,8,10,-1,12,-1,-1,-1,-1],"split_conditions":[1E0,4.646E3,-6.8329656E-1,-7.2245084E-2,-3.1257063E-2,1.3855355E0,-3.5651433E0,-5.0172437E-2,4.84E2,4.2545166E-2,6.631862E-2,4.0444523E-2,7.081618E-2],"split_indices":[7,36,20,0,0,16,16,0,31,0,0,0,0],"split_type":[0,0,0,0,0,0,0,0,0,0,0,0,0],"sum_hessian":[2.3767131E2,1.087798E2,1.2889151E2,9.762974E1,1.11500635E1,3.6165146E1,9.272636E1,1.0526729E1,2.5638418E1,1.9549463E1,7.3176895E1,1.0188887E1,1.5449532E1],"tree_param":{"num_deleted":"0","num_feature":"52","num_nodes":"13","size_leaf_vector":"1"}},{"base_weights":[5.370196E-2,-1.3446738E0,1.1056875E0,-7.096698E-2,-2.7006252E-2,7.5700873E-1,1.2710739E0,-2.5728574E-2,1.1924752E0,6.816902E-2,1.0471039E0,2.2000348E-2,7.2378926E-2,7.1907565E-2,2.8078234E-2],"categories":[],"categories_nodes":[],"categories_segments":[],"categories_sizes":[],"default_left":[0,1,0,0,0,0,0,0,0,0,0,0,0,0,0],"id":11,"left_children":[1,3,5,-1,-1,7,9,-1,11,-1,13,-1,-1,-1,-1],"loss_changes":[3.847043E2,5.9788666E0,7.642395E0,0E0,0E0,2.8564655E1,6.3430786E-1,0E0,6.6386642E0,0E0,5.5375595E0,0E0,0E0,0E0,0E0],"parents":[2147483647,0,0,1,1,2,2,5,5,6,6,8,8,10,10],"right_children":[2,4,6,-1,-1,8,10,-1,12,-1,14,-1,-1,-1,-1],"split_conditions":[1E0,1.1587E4,5.650503E0,-7.096698E-2,-2.7006252E-2,2.0112178E0,4.5444855E-1,-2.5728574E-2,-1.2161353E0,6.816902E-2,4.8E1,2.2000348E-2,7.2378926E-2,7.1907565E-2,2.8078234E-2],"split_indices":[7,29,13,0,0,15,15,0,20,0,24,0,0,0,0],"split_type":[0,0,0,0,0,0,0,0,0,0,0,0,0,0,0],"sum_hessian":[2.595024E2,1.1128975E2,1.4821265E2,1.01139404E2,1.015034E1,4.947769E1,9.873496E1,1.2575386E1,3.6902306E1,6.631623E1,3.2418728E1,1.003304E1,2.6869267E1,1.6869925E1,1.5548803E1],"tree_param":{"num_deleted":"0","num_feature":"52","num_nodes":"15","size_leaf_vector":"1"}},{"base_weights":[-2.3622219E-2,-1.2413474E0,1.0026366E0,-6.9072716E-2,8.298307E-3,5.565703E-1,6.731006E-2,9.979487E-1,-2.0668527E-1,5.138583E-1,7.8127466E-2,-5.9882343E-2,3.8570397E-2,5.170253E-2,-5.3019443E-4],"categories":[],"categories_nodes":[],"categories_segments":[],"categories_sizes":[],"default_left":[0,0,0,0,0,0,0,0,0,0,0,0,0,0,0],"id":12,"left_children":[1,3,5,-1,-1,7,-1,9,11,13,-1,-1,-1,-1,-1],"loss_changes":[3.0896777E2,2.2521912E1,1.981369E1,0E0,0E0,2.0447824E1,0E0,9.649052E0,2.3064941E1,6.0344462E0,0E0,0E0,0E0,0E0,0E0],"parents":[2147483647,0,0,1,1,2,2,5,5,7,7,8,8,9,9],"right_children":[2,4,6,-1,-1,8,-1,10,12,14,-1,-1,-1,-1,-1],"split_conditions":[1E0,5.786134E0,9.720638E0,-6.9072716E-2,8.298307E-3,3.4998634E-1,6.731006E-2,7.92E2,-6.249153E-1,-2.5206544E0,7.8127466E-2,-5.9882343E-2,3.8570397E-2,5.170253E-2,-5.3019443E-4],"split_indices":[7,15,13,0,0,21,0,27,20,17,0,0,0,0,0],"split_type":[0,0,0,0,0,0,0,0,0,0,0,0,0,0,0],"sum_hessian":[2.4523737E2,1.1206048E2,1.331769E2,1.01930984E2,1.0129497E1,5.908457E1,7.409232E1,3.7241135E1,2.1843437E1,2.1078495E1,1.616264E1,1.073884E1,1.1104598E1,1.0094521E1,1.09839735E1],"tree_param":{"num_deleted":"0","num_feature":"52","num_nodes":"15","size_leaf_vector":"1"}},{"base_weights":[1.2051691E-1,-6.72866E-2,9.769717E-1,2.0119257E-1,1.1042523E0,-2.9984726E-2,5.7562377E-2,1.2829138E0,7.8496784E-1,1.0744452E0,7.739345E-2,-5.236337E-3,1.0692092E0,2.371055E-2,1.2573042E0,2.2251306E-2,6.452621E-2,4.654404E-2,6.899263E-2],"categories":[],"categories_nodes":[],"categories_segments":[],"categories_sizes":[],"default_left":[0,0,0,0,0,0,0,0,0,0,0,0,0,0,0,0,0,0,0],"id":13,"left_children":[1,-1,3,5,7,-1,-1,9,11,13,-1,-1,15,-1,17,-1,-1,-1,-1],"loss_changes":[3.145665E2,0E0,1.5383789E1,1.8570276E1,6.7252197E0,0E0,0E0,3.0505524E0,1.3062674E1,5.004719E0,0E0,0E0,4.7994843E0,0E0,2.5595474E-1,0E0,0E0,0E0,0E0],"parents":[2147483647,0,0,2,2,3,3,4,4,7,7,8,8,9,9,12,12,14,14],"right_children":[2,-1,4,6,8,-1,-1,10,12,14,-1,-1,16,-1,18,-1,-1,-1,-1],"split_conditions":[1.2795E3,-6.72866E-2,2.3550534E0,1.234E4,-2.4315043E-1,-2.9984726E-2,5.7562377E-2,2.0166986E0,2E0,7.6378045E0,7.739345E-2,-5.236337E-3,-1.0883904E-2,2.371055E-2,7.985E3,2.2251306E-2,6.452621E-2,4.654404E-2,6.899263E-2],"split_indices":[9,0,13,25,14,0,0,19,26,13,0,0,22,0,29,0,0,0,0],"split_type":[0,0,0,0,0,0,0,0,0,0,0,0,0,0,0,0,0,0,0],"sum_hessian":[2.4844878E2,9.140033E1,1.5704845E2,2.2498741E1,1.3454971E2,1.2407835E1,1.0090905E1,8.43385E1,5.021121E1,5.002987E1,3.430863E1,1.2310396E1,3.7900814E1,1.2521467E1,3.75084E1,1.0708903E1,2.719191E1,1.2584364E1,2.4924038E1],"tree_param":{"num_deleted":"0","num_feature":"52","num_nodes":"19","size_leaf_vector":"1"}},{"base_weights":[1.3969241E-1,-6.610893E-2,9.697853E-1,-1.029878E-3,1.0924398E0,6.641486E-1,1.2425917E0,-4.6938807E-3,6.657263E-2,6.743565E-2,7.922101E-1,1.9627996E-2,5.570897E-2],"categories":[],"categories_nodes":[],"categories_segments":[],"categories_sizes":[],"default_left":[0,0,0,0,0,0,0,0,0,0,0,0,0],"id":14,"left_children":[1,-1,3,-1,5,7,9,-1,-1,-1,11,-1,-1],"loss_changes":[2.9649884E2,0E0,1.8941772E1,0E0,8.088043E0,1.9410608E1,3.7815704E0,0E0,0E0,0E0,2.364421E0,0E0,0E0],"parents":[2147483647,0,0,2,2,4,4,5,5,6,6,10,10],"right_children":[2,-1,4,-1,6,8,10,-1,-1,-1,12,-1,-1],"split_conditions":[1.2795E3,-6.610893E-2,1E0,-1.029878E-3,-9.129014E-1,9.091746E0,-2.0978336E-1,-4.6938807E-3,6.657263E-2,6.743565E-2,2.521987E0,1.9627996E-2,5.570897E-2],"split_indices":[9,0,7,0,20,13,17,0,0,0,20,0,0],"split_type":[0,0,0,0,0,0,0,0,0,0,0,0,0],"sum_hessian":[2.4227925E2,8.753288E1,1.5474637E2,1.7144436E1,1.3760193E2,3.7126385E1,1.0047555E2,1.7783955E1,1.934243E1,7.970131E1,2.0774246E1,1.0259143E1,1.0515102E1],"tree_param":{"num_deleted":"0","num_feature":"52","num_nodes":"13","size_leaf_vector":"1"}},{"base_weights":[-1.5704628E-2,-1.2374945E0,9.378071E-1,-2.4685029E-2,-6.5932564E-2,5.5735904E-1,6.362587E-2,-1.6907118E-2,9.926641E-1,1.9254465E-2,6.4330034E-2],"categories":[],"categories_nodes":[],"categories_segments":[],"categories_sizes":[],"default_left":[0,0,0,0,0,0,0,0,0,0,0],"id":15,"left_children":[1,3,5,-1,-1,7,-1,-1,9,-1,-1],"loss_changes":[2.5414755E2,5.1209106E0,1.4894821E1,0E0,0E0,2.338561E1,0E0,0E0,6.6557465E0,0E0,0E0],"parents":[2147483647,0,0,1,1,2,2,5,5,8,8],"right_children":[2,4,6,-1,-1,8,-1,-1,10,-1,-1],"split_conditions":[1E0,-4.0131655E-1,9.720638E0,-2.4685029E-2,-6.5932564E-2,1.9641984E0,6.362587E-2,-1.6907118E-2,-7.8953296E-1,1.9254465E-2,6.4330034E-2],"split_indices":[7,21,13,0,0,15,0,0,20,0,0],"split_type":[0,0,0,0,0,0,0,0,0,0,0],"sum_hessian":[2.1615793E2,9.4619125E1,1.21538795E2,1.0005255E1,8.461388E1,5.8130283E1,6.3408516E1,1.908735E1,3.9042934E1,1.3483102E1,2.5559832E1],"tree_param":{"num_deleted":"0","num_feature":"52","num_nodes":"11","size_leaf_vector":"1"}},{"base_weights":[6.740221E-2,-1.1422497E0,9.611842E-1,1.3100731E-2,-6.52082E-2,1.1572789E0,5.073236E-1,2.798367E-2,1.2357203E0,-3.251532E-2,1.0656407E0,1.2952657E0,3.9000873E-2,3.2991048E-2,6.481349E-2,6.841797E-2,4.82882E-2],"categories":[],"categories_nodes":[],"categories_segments":[],"categories_sizes":[],"default_left":[0,0,0,0,0,0,0,0,0,0,0,0,0,0,0,0,0],"id":16,"left_children":[1,3,5,-1,-1,7,9,-1,11,-1,13,15,-1,-1,-1,-1,-1],"loss_changes":[2.5481125E2,2.3117508E1,1.1472008E1,0E0,0E0,3.7071304E0,2.8265453E1,0E0,1.21801E0,0E0,1.8737946E0,3.912735E-1,0E0,0E0,0E0,0E0,0E0],"parents":[2147483647,0,0,1,1,2,2,5,5,6,6,8,8,10,10,11,11],"right_children":[2,4,6,-1,-1,8,10,-1,12,-1,14,16,-1,-1,-1,-1,-1],"split_conditions":[1E0,-2.8431509E0,5E0,1.3100731E-2,-6.52082E-2,-2.0927649E0,6.75171E0,2.798367E-2,1.1421E4,-3.251532E-2,1.591379E4,2.7346606E0,3.9000873E-2,3.2991048E-2,6.481349E-2,6.841797E-2,4.82882E-2],"split_indices":[7,16,5,0,0,22,13,0,29,0,4,21,0,0,0,0,0],"split_type":[0,0,0,0,0,0,0,0,0,0,0,0,0,0,0,0,0],"sum_hessian":[2.336666E2,9.917047E1,1.3449612E2,1.0188499E1,8.898197E1,9.283573E1,4.1660393E1,1.1715577E1,8.1120155E1,1.3501418E1,2.8158976E1,7.011596E1,1.1004191E1,1.1603017E1,1.6555958E1,5.4805573E1,1.5310389E1],"tree_param":{"num_deleted":"0","num_feature":"52","num_nodes":"17","size_leaf_vector":"1"}},{"base_weights":[1.5508443E-1,-6.314228E-2,8.8523054E-1,5.001707E-1,1.2169262E0,-3.369757E-2,7.6804304E-1,6.473061E-2,3.4657527E-2,1.0107388E0,-5.6504137E-3,1.390166E0,4.7494084E-1,5.044322E-2,7.794756E-2,-1.9680716E-3,4.7555182E-2],"categories":[],"categories_nodes":[],"categories_segments":[],"categories_sizes":[],"default_left":[0,0,0,0,0,0,0,0,0,0,0,0,0,0,0,0,0],"id":17,"left_children":[1,-1,3,5,7,-1,9,-1,-1,11,-1,13,15,-1,-1,-1,-1],"loss_changes":[2.4569835E2,0E0,1.9383713E1,2.3834377E1,2.4959412E0,0E0,1.3121597E1,0E0,0E0,9.056103E0,0E0,1.9456863E-1,5.2617145E0,0E0,0E0,0E0,0E0],"parents":[2147483647,0,0,2,2,3,3,4,4,6,6,9,9,11,11,12,12],"right_children":[2,-1,4,6,8,-1,10,-1,-1,12,-1,14,16,-1,-1,-1,-1],"split_conditions":[1.236E3,-6.314228E-2,8.246018E0,1.8317167E0,1.0438E4,-3.369757E-2,5E0,6.473061E-2,3.4657527E-2,-2.9978228E-1,-5.6504137E-3,1.29E2,5.966846E-1,5.044322E-2,7.794756E-2,-1.9680716E-3,4.7555182E-2],"split_indices":[9,0,13,15,29,0,5,0,0,21,0,31,17,0,0,0,0],"split_type":[0,0,0,0,0,0,0,0,0,0,0,0,0,0,0,0,0],"sum_hessian":[2.3524203E2,7.971243E1,1.555296E2,7.313562E1,8.239399E1,1.330444E1,5.9831177E1,7.0470215E1,1.1923771E1,4.6794025E1,1.3037154E1,2.6461004E1,2.0333021E1,1.0259968E1,1.6201036E1,1.0216039E1,1.01169815E1],"tree_param":{"num_deleted":"0","num_feature":"52","num_nodes":"17","size_leaf_vector":"1"}},{"base_weights":[-3.306857E-2,-6.235981E-2,7.146599E-1,3.3172643E-1,1.1123904E0,1.1594973E0,-1.6645116E-1,6.0072023E-2,3.1403083E-2,3.441899E-2,7.799634E-2,-7.708252E-1,4.639149E-2,-8.421981E-2,3.97232E-3],"categories":[],"categories_nodes":[],"categories_segments":[],"categories_sizes":[],"default_left":[0,0,0,0,0,1,0,0,0,0,0,0,0,0,0],"id":18,"left_children":[1,-1,3,5,7,9,11,-1,-1,-1,-1,13,-1,-1,-1],"loss_changes":[1.7987622E2,0E0,1.8310894E1,2.654864E1,1.821846E0,3.4798012E0,2.7680975E1,0E0,0E0,0E0,0E0,2.0961487E1,0E0,0E0,0E0],"parents":[2147483647,0,0,2,2,3,3,4,4,5,5,6,6,11,11],"right_children":[2,-1,4,6,8,10,12,-1,-1,-1,-1,14,-1,-1,-1],"split_conditions":[1.236E3,-6.235981E-2,8.246018E0,1.661E3,1.0438E4,1E0,1.5321367E0,6.0072023E-2,3.1403083E-2,3.441899E-2,7.799634E-2,1.1E0,4.639149E-2,-8.421981E-2,3.97232E-3],"split_indices":[9,0,13,9,29,34,22,0,0,0,0,39,0,0,0],"split_type":[0,0,0,0,0,0,0,0,0,0,0,0,0,0,0],"sum_hessian":[1.9615514E2,7.4506645E1,1.2164849E2,6.2911537E1,5.8736958E1,2.3138002E1,3.9773533E1,4.8363987E1,1.0372968E1,1.1879966E1,1.1258037E1,2.5812704E1,1.3960832E1,1.1970276E1,1.3842427E1],"tree_param":{"num_deleted":"0","num_feature":"52","num_nodes":"15","size_leaf_vector":"1"}},{"base_weights":[9.720067E-3,-1.1658059E0,8.8557816E-1,-6.279341E-2,-2.2033758E-2,4.4704545E-1,1.1439747E0,-1.6455302E-2,5.4133233E-2,4.2721998E-2,6.0322274E-2],"categories":[],"categories_nodes":[],"categories_segments":[],"categories_sizes":[],"default_left":[0,0,0,0,0,0,0,0,0,0,0],"id":19,"left_children":[1,3,5,-1,-1,7,9,-1,-1,-1,-1],"loss_changes":[2.0765924E2,5.070633E0,1.2584496E1,0E0,0E0,2.2305283E1,2.728958E-1,0E0,0E0,0E0,0E0],"parents":[2147483647,0,0,1,1,2,2,5,5,6,6],"right_children":[2,4,6,-1,-1,8,10,-1,-1,-1,-1],"split_conditions":[1E0,9.7050625E-1,-3.9863167E-3,-6.279341E-2,-2.2033758E-2,7.3371754E0,8.6775553E-1,-1.6455302E-2,5.4133233E-2,4.2721998E-2,6.0322274E-2],"split_indices":[7,17,20,0,0,13,20,0,0,0,0],"split_type":[0,0,0,0,0,0,0,0,0,0,0],"sum_hessian":[1.996877E2,8.511723E1,1.1457046E2,7.506245E1,1.0054787E1,4.349085E1,7.107961E1,1.9797926E1,2.3692923E1,1.521939E1,5.586022E1],"tree_param":{"num_deleted":"0","num_feature":"52","num_nodes":"11","size_leaf_vector":"1"}},{"base_weights":[1.1848129E-1,-6.1038144E-2,8.1692755E-1,2.2533989E-1,1.0801953E0,-2.8506467E-2,7.97076E-1,2.2863017E-2,1.19722E0,1.5060355E-2,5.716395E-2,6.38467E-2,9.379569E-1,2.8507596E-2,5.9897203E-2],"categories":[],"categories_nodes":[],"categories_segments":[],"categories_sizes":[],"default_left":[0,0,0,0,0,0,0,0,0,0,0,0,0,0,0],"id":20,"left_children":[1,-1,3,5,7,-1,9,-1,11,-1,-1,-1,13,-1,-1],"loss_changes":[2.0106355E2,0E0,2.1743607E1,2.0802166E1,6.5552597E0,0E0,4.1959553E0,0E0,4.846878E-1,0E0,0E0,0E0,1.507782E0,0E0,0E0],"parents":[2147483647,0,0,2,2,3,3,4,4,6,6,8,8,12,12],"right_children":[2,-1,4,6,8,-1,10,-1,12,-1,-1,-1,14,-1,-1],"split_conditions":[1.296E3,-6.1038144E-2,-9.688E-2,1.225135E0,2.274E3,-2.8506467E-2,3.55E2,2.2863017E-2,5E0,1.5060355E-2,5.716395E-2,6.38467E-2,1.7557021E4,2.8507596E-2,5.9897203E-2],"split_indices":[9,0,20,16,9,0,31,0,5,0,0,0,4,0,0],"split_type":[0,0,0,0,0,0,0,0,0,0,0,0,0,0,0],"sum_hessian":[2.128854E2,7.271306E1,1.4017235E2,4.3740105E1,9.643224E1,1.8292355E1,2.544775E1,1.6026869E1,8.040537E1,1.1231222E1,1.4216528E1,5.8495014E1,2.191036E1,1.0396037E1,1.1514322E1],"tree_param":{"num_deleted":"0","num_feature":"52","num_nodes":"15","size_leaf_vector":"1"}},{"base_weights":[-2.668155E-2,-6.0267E-2,6.722293E-1,-4.598218E-2,8.837376E-1,4.0147003E-2,-4.3648038E-2,4.0560277E-4,1.0215815E0,1.1481436E0,2.5006508E-2,3.2768145E-2,1.2353272E0,4.914665E-2,7.036244E-2],"categories":[],"categories_nodes":[],"categories_segments":[],"categories_sizes":[],"default_left":[0,0,0,0,0,0,0,0,0,0,0,0,0,0,0],"id":21,"left_children":[1,-1,3,5,7,-1,-1,-1,9,11,-1,-1,13,-1,-1],"loss_changes":[1.4944972E2,0E0,1.7344799E1,1.9561417E1,1.06189575E1,0E0,0E0,0E0,4.4456787E0,1.7868881E0,0E0,0E0,7.959671E-1,0E0,0E0],"parents":[2147483647,0,0,2,2,3,3,4,4,8,8,9,9,12,12],"right_children":[2,-1,4,6,8,-1,-1,-1,10,12,-1,-1,14,-1,-1],"split_conditions":[1.296E3,-6.0267E-2,-9.129014E-1,4.8E1,1E0,4.0147003E-2,-4.3648038E-2,4.0560277E-4,-1.560092E-1,-1.6890998E0,2.5006508E-2,3.2768145E-2,6.7E1,4.914665E-2,7.036244E-2],"split_indices":[9,0,20,24,7,0,0,0,17,22,0,0,28,0,0],"split_type":[0,0,0,0,0,0,0,0,0,0,0,0,0,0,0],"sum_hessian":[1.7943646E2,6.6524124E1,1.1291233E2,2.5865234E1,8.70471E1,1.2777626E1,1.3087609E1,1.1983458E1,7.5063644E1,5.943602E1,1.5627623E1,1.021509E1,4.922093E1,2.266471E1,2.655622E1],"tree_param":{"num_deleted":"0","num_feature":"52","num_nodes":"15","size_leaf_vector":"1"}},{"base_weights":[1.4174543E-1,-1.0133582E0,8.84119E-1,-6.0615696E-2,1.0038891E-2,1.0829961E0,4.0258327E-1,8.2307273E-1,6.086395E-2,-1.7519704E-1,5.702265E-2,1.23012485E-2,5.4944027E-2,-5.8689546E-2,3.910207E-2],"categories":[],"categories_nodes":[],"categories_segments":[],"categories_sizes":[],"default_left":[0,0,0,0,0,0,0,0,0,0,0,0,0,0,0],"id":22,"left_children":[1,3,5,-1,-1,7,9,11,-1,13,-1,-1,-1,-1,-1],"loss_changes":[1.7329588E2,1.9356384E1,1.1335808E1,0E0,0E0,2.0137787E0,1.619574E1,4.9053173E0,0E0,2.186135E1,0E0,0E0,0E0,0E0,0E0],"parents":[2147483647,0,0,1,1,2,2,5,5,6,6,7,7,9,9],"right_children":[2,4,6,-1,-1,8,10,12,-1,14,-1,-1,-1,-1,-1],"split_conditions":[1E0,1.0333787E0,5E0,-6.0615696E-2,1.0038891E-2,-2.6508966E-1,1.5658064E0,2.8456228E0,6.086395E-2,6.5199356E0,5.702265E-2,1.23012485E-2,5.4944027E-2,-5.8689546E-2,3.910207E-2],"split_indices":[7,16,5,0,0,20,22,15,0,13,0,0,0,0,0],"split_type":[0,0,0,0,0,0,0,0,0,0,0,0,0,0,0],"sum_hessian":[2.000452E2,7.812335E1,1.2192185E2,6.71253E1,1.0998052E1,8.540147E1,3.652038E1,3.1519812E1,5.3881657E1,2.0909782E1,1.5610598E1,1.0805163E1,2.071465E1,1.0123103E1,1.0786678E1],"tree_param":{"num_deleted":"0","num_feature":"52","num_nodes":"15","size_leaf_vector":"1"}},{"base_weights":[1.1754591E-1,-5.9041858E-2,7.67322E-1,9.742768E-1,2.2535563E-1,6.569121E-1,1.1489086E0,-4.769131E-2,8.058171E-1,5.791421E-3,5.2195705E-2,1.2359688E0,3.6978677E-2,1.4673144E-2,5.987456E-2,4.767383E-2,1.3410665E0,7.412776E-2,4.735101E-2],"categories":[],"categories_nodes":[],"categories_segments":[],"categories_sizes":[],"default_left":[0,0,0,0,0,0,0,0,0,0,0,0,0,0,0,0,0,0,0],"id":23,"left_children":[1,-1,3,5,7,9,11,-1,13,-1,-1,15,-1,-1,-1,-1,17,-1,-1],"loss_changes":[1.760794E2,0E0,1.5369705E1,4.8029633E0,2.7947886E1,7.821436E0,1.3435287E0,0E0,5.0972786E0,0E0,0E0,2.2805786E-1,0E0,0E0,0E0,0E0,5.210724E-1,0E0,0E0],"parents":[2147483647,0,0,2,2,3,3,4,4,5,5,6,6,8,8,11,11,16,16],"right_children":[2,-1,4,6,8,10,12,-1,14,-1,-1,16,-1,-1,-1,-1,18,-1,-1],"split_conditions":[1.2795E3,-5.9041858E-2,5E0,-2.6311436E-1,5.0594163E0,8.246018E0,1.1427E4,-4.769131E-2,1.5658064E0,5.791421E-3,5.2195705E-2,2.4559014E0,3.6978677E-2,1.4673144E-2,5.987456E-2,4.767383E-2,5.458403E0,7.412776E-2,4.735101E-2],"split_indices":[9,0,5,22,13,13,25,0,22,0,0,15,0,0,0,0,13,0,0],"split_type":[0,0,0,0,0,0,0,0,0,0,0,0,0,0,0,0,0,0,0],"sum_hessian":[2.066354E2,6.864721E1,1.3798819E2,9.927968E1,3.8708515E1,3.692899E1,6.235069E1,1.2556771E1,2.6151745E1,1.5940797E1,2.0988194E1,4.9750053E1,1.26006365E1,1.2088223E1,1.4063521E1,1.6221243E1,3.352881E1,2.263791E1,1.0890898E1],"tree_param":{"num_deleted":"0","num_feature":"52","num_nodes":"19","size_leaf_vector":"1"}},{"base_weights":[2.0357446E-1,-5.8158245E-2,8.6058253E-1,1.0643076E0,3.9081946E-1,2.2943264E-2,1.1471578E0,-1.296981E-2,8.1135535E-1,7.369311E-1,1.3319473E0,2.6615066E-2,5.3676046E-2,4.036003E-3,6.3330494E-2,7.984873E-2,1.0798092E0,3.827035E-2,6.019608E-2],"categories":[],"categories_nodes":[],"categories_segments":[],"categories_sizes":[],"default_left":[0,0,0,0,0,0,0,0,0,0,0,0,0,0,0,0,0,0,0],"id":24,"left_children":[1,-1,3,5,7,-1,9,-1,11,13,15,-1,-1,-1,-1,-1,17,-1,-1],"loss_changes":[1.7528929E2,0E0,1.2183876E1,4.05085E0,1.1532282E1,0E0,5.052597E0,0E0,1.285738E0,9.268321E0,1.8600464E0,0E0,0E0,0E0,0E0,0E0,2.7165604E-1,0E0,0E0],"parents":[2147483647,0,0,2,2,3,3,4,4,6,6,8,8,9,9,10,10,16,16],"right_children":[2,-1,4,6,8,-1,10,-1,12,14,16,-1,-1,-1,-1,-1,18,-1,-1],"split_conditions":[1.2795E3,-5.8158245E-2,5E0,3.5E1,1.7120339E-1,2.2943264E-2,-1.0435311E-1,-1.296981E-2,1.1E0,8.45E2,4.24163E-1,2.6615066E-2,5.3676046E-2,4.036003E-3,6.3330494E-2,7.984873E-2,5.08E2,3.827035E-2,6.019608E-2],"split_indices":[9,0,5,28,20,0,18,0,39,27,21,0,0,0,0,0,27,0,0],"split_type":[0,0,0,0,0,0,0,0,0,0,0,0,0,0,0,0,0,0,0],"sum_hessian":[1.9309386E2,6.2437664E1,1.3065619E2,9.025091E1,4.0405277E1,1.1650605E1,7.86003E1,1.6019598E1,2.438568E1,2.5959352E1,5.2640953E1,1.3280287E1,1.1105393E1,1.2109487E1,1.3849865E1,2.3064095E1,2.957686E1,1.0399591E1,1.9177269E1],"tree_param":{"num_deleted":"0","num_feature":"52","num_nodes":"19","size_leaf_vector":"1"}},{"base_weights":[1.038944E-1,-5.7828438E-2,7.318245E-1,1.747652E-2,9.3963784E-1,3.778326E-2,-5.677274E-2,5.642013E-1,1.1031162E0,5.2007616E-2,-6.261955E-4,6.387467E-2,8.770917E-1,5.5978682E-2,2.3411771E-2],"categories":[],"categories_nodes":[],"categories_segments":[],"categories_sizes":[],"default_left":[0,0,0,0,0,0,0,0,0,0,0,0,0,0,0],"id":25,"left_children":[1,-1,3,5,7,-1,-1,9,11,-1,-1,-1,13,-1,-1],"loss_changes":[1.3769955E2,0E0,1.7207531E1,2.3978148E1,4.892784E0,0E0,0E0,8.057141E0,1.3055573E0,0E0,0E0,0E0,2.4497318E0,0E0,0E0],"parents":[2147483647,0,0,2,2,3,3,4,4,7,7,8,8,12,12],"right_children":[2,-1,4,6,8,-1,-1,10,12,-1,-1,-1,14,-1,-1],"split_conditions":[1.299E3,-5.7828438E-2,3.172475E0,-2.9978228E-1,-9.688E-2,3.778326E-2,-5.677274E-2,-1.936945E0,5.32E2,5.2007616E-2,-6.261955E-4,6.387467E-2,-1.8512681E-1,5.5978682E-2,2.3411771E-2],"split_indices":[9,0,13,21,20,0,0,20,27,0,0,0,15,0,0],"split_type":[0,0,0,0,0,0,0,0,0,0,0,0,0,0,0],"sum_hessian":[1.7190729E2,5.688282E1,1.15024475E2,2.6165602E1,8.885887E1,1.6162066E1,1.0003535E1,2.8305357E1,6.0553516E1,1.5067298E1,1.323806E1,3.1556074E1,2.8997442E1,1.7111032E1,1.1886408E1],"tree_param":{"num_deleted":"0","num_feature":"52","num_nodes":"15","size_leaf_vector":"1"}},{"base_weights":[2.5707282E-2,-5.717027E-2,6.125635E-1,1.2137535E-1,8.8228637E-1,-5.624227E-1,4.2333443E-2,7.66948E-3,1.008037E0,-6.824933E-2,1.7021734E-2,1.3085977E0,7.627324E-1,4.718967E-2,7.416871E-2,4.6981857E-3,5.5012383E-2],"categories":[],"categories_nodes":[],"categories_segments":[],"categories_sizes":[],"default_left":[0,0,0,0,0,0,0,0,0,0,0,0,0,0,0,0,0],"id":26,"left_children":[1,-1,3,5,7,9,-1,-1,11,-1,-1,13,15,-1,-1,-1,-1],"loss_changes":[1.16452774E2,0E0,1.4860695E1,2.0912992E1,6.5154495E0,1.6269043E1,0E0,0E0,3.5645027E0,0E0,0E0,2.8403473E-1,8.128901E0,0E0,0E0,0E0,0E0],"parents":[2147483647,0,0,2,2,3,3,4,4,5,5,8,8,11,11,12,12],"right_children":[2,-1,4,6,8,10,-1,-1,12,-1,-1,14,16,-1,-1,-1,-1],"split_conditions":[1.2795E3,-5.717027E-2,-5.73418E-2,8.191264E-1,3.53E2,-3.4626268E-2,4.2333443E-2,7.66948E-3,5.663E3,-6.824933E-2,1.7021734E-2,6.9E1,9.51E2,4.718967E-2,7.416871E-2,4.6981857E-3,5.5012383E-2],"split_indices":[9,0,20,22,23,19,0,0,4,0,0,37,41,0,0,0,0],"split_type":[0,0,0,0,0,0,0,0,0,0,0,0,0,0,0,0,0],"sum_hessian":[1.6771039E2,5.5732952E1,1.1197743E2,4.020704E1,7.177039E1,2.0811121E1,1.9395918E1,1.088672E1,6.0883675E1,1.074652E1,1.00646E1,2.54124E1,3.547128E1,1.0304408E1,1.510799E1,1.23261175E1,2.314516E1],"tree_param":{"num_deleted":"0","num_feature":"52","num_nodes":"17","size_leaf_vector":"1"}},{"base_weights":[4.903742E-2,-5.6666415E-2,6.152161E-1,8.464377E-1,6.300317E-4,6.660736E-2,6.4473104E-1,-4.6889596E-2,3.0717729E-2,1.6011973E-1,8.859474E-1,-2.3168817E-2,3.7658967E-2,2.212944E-2,1.0447818E0,3.807369E-2,5.9835535E-2],"categories":[],"categories_nodes":[],"categories_segments":[],"categories_sizes":[],"default_left":[0,0,0,0,0,0,0,0,0,0,0,0,0,0,0,0,0],"id":27,"left_children":[1,-1,3,5,7,-1,9,-1,-1,11,13,-1,-1,-1,15,-1,-1],"loss_changes":[1.13321365E2,0E0,1.625793E1,7.285782E0,1.9165953E1,0E0,6.9511395E0,0E0,0E0,8.256842E0,2.3749733E0,0E0,0E0,0E0,3.3394432E-1,0E0,0E0],"parents":[2147483647,0,0,2,2,3,3,4,4,6,6,9,9,10,10,14,14],"right_children":[2,-1,4,6,8,-1,10,-1,-1,12,14,-1,-1,-1,16,-1,-1],"split_conditions":[1.236E3,-5.6666415E-2,5E0,-2.4546747E0,2E0,6.660736E-2,2.466E3,-4.6889596E-2,3.0717729E-2,9.5263135E-1,9.96E2,-2.3168817E-2,3.7658967E-2,2.212944E-2,8.804376E3,3.807369E-2,5.9835535E-2],"split_indices":[9,0,5,21,7,0,9,0,0,22,41,0,0,0,4,0,0],"split_type":[0,0,0,0,0,0,0,0,0,0,0,0,0,0,0,0,0],"sum_hessian":[1.6723877E2,5.382756E1,1.1341122E2,8.2133446E1,3.127777E1,2.245571E1,5.967774E1,1.215856E1,1.911921E1,2.0385803E1,3.9291935E1,1.0044489E1,1.0341315E1,1.1362362E1,2.7929573E1,1.1848056E1,1.6081516E1],"tree_param":{"num_deleted":"0","num_feature":"52","num_nodes":"17","size_leaf_vector":"1"}},{"base_weights":[-3.9395534E-2,-5.642712E-2,5.308195E-1,1.794243E-1,1.0801207E0,-5.7719463E-1,5.624364E-1,3.8791765E-2,5.782823E-2,6.4269626E-3,-6.563812E-2,6.1491568E-2,1.1450131E-1,-2.2030719E-2,4.30302E-2],"categories":[],"categories_nodes":[],"categories_segments":[],"categories_sizes":[],"default_left":[0,0,0,0,0,0,0,0,0,0,0,0,0,0,0],"id":28,"left_children":[1,-1,3,5,7,9,11,-1,-1,-1,-1,-1,13,-1,-1],"loss_changes":[1.02742424E2,0E0,2.0774544E1,1.9871206E1,8.388901E-2,1.2192667E1,1.3397858E1,0E0,0E0,0E0,0E0,0E0,1.2059683E1,0E0,0E0],"parents":[2147483647,0,0,2,2,3,3,4,4,5,5,6,6,12,12],"right_children":[2,-1,4,6,8,10,12,-1,-1,-1,-1,-1,14,-1,-1],"split_conditions":[1.2795E3,-5.642712E-2,9.091746E0,-6.770302E-2,1.3117024E1,6.6371214E-1,2E0,3.8791765E-2,5.782823E-2,6.4269626E-3,-6.563812E-2,6.1491568E-2,1.5014956E0,-2.2030719E-2,4.30302E-2],"split_indices":[9,0,13,22,13,21,6,0,0,0,0,0,21,0,0],"split_type":[0,0,0,0,0,0,0,0,0,0,0,0,0,0,0],"sum_hessian":[1.6346936E2,5.583734E1,1.0763203E2,6.644983E1,4.1182194E1,2.2162354E1,4.428748E1,1.0507225E1,3.0674967E1,1.1731715E1,1.0430639E1,1.7085543E1,2.7201935E1,1.58320265E1,1.1369907E1],"tree_param":{"num_deleted":"0","num_feature":"52","num_nodes":"15","size_leaf_vector":"1"}},{"base_weights":[1.6067775E-1,-5.587774E-2,6.9106907E-1,4.1059387E-1,1.0353408E0,-5.803011E-2,7.1228343E-1,5.5600163E-2,4.05301E-2,9.49064E-4,9.369765E-1,6.065707E-1,6.684355E-2,-5.217614E-4,6.67854E-2],"categories":[],"categories_nodes":[],"categories_segments":[],"categories_sizes":[],"default_left":[0,0,0,0,0,0,0,0,0,0,0,0,0,0,0],"id":29,"left_children":[1,-1,3,5,7,-1,9,-1,-1,-1,11,13,-1,-1,-1],"loss_changes":[1.1986514E2,0E0,1.162228E1,3.420227E1,5.233383E-2,0E0,9.280485E0,0E0,0E0,0E0,5.142502E0,1.1937289E1,0E0,0E0,0E0],"parents":[2147483647,0,0,2,2,3,3,4,4,6,6,10,10,11,11],"right_children":[2,-1,4,6,8,-1,10,-1,-1,-1,12,14,-1,-1,-1],"split_conditions":[1.236E3,-5.587774E-2,8.052709E0,2.0112178E0,5E-1,-5.803011E-2,-1.1162677E0,5.5600163E-2,4.05301E-2,9.49064E-4,7.47E2,1.8001118E0,6.684355E-2,-5.217614E-4,6.67854E-2],"split_indices":[9,0,13,15,39,0,20,0,0,0,27,21,0,0,0],"split_type":[0,0,0,0,0,0,0,0,0,0,0,0,0,0,0],"sum_hessian":[1.7466263E2,5.0896362E1,1.2376626E2,6.941065E1,5.435561E1,1.0722254E1,5.8688396E1,3.758628E1,1.6769327E1,1.4630307E1,4.405809E1,2.5503279E1,1.8554811E1,1.4347726E1,1.1155553E1],"tree_param":{"num_deleted":"0","num_feature":"52","num_nodes":"15","size_leaf_vector":"1"}},{"base_weights":[1.3091756E-1,-5.535681E-2,6.5037E-1,3.3261696E-1,1.0079637E0,5.900389E-1,-3.6904477E-2,3.4180973E-2,5.6018908E-2,-4.4070315E-3,9.670018E-1,1.700252E-2,6.506066E-2],"categories":[],"categories_nodes":[],"categories_segments":[],"categories_sizes":[],"default_left":[0,0,0,0,0,1,0,0,0,0,0,0,0],"id":30,"left_children":[1,-1,3,5,7,9,-1,-1,-1,-1,11,-1,-1],"loss_changes":[1.0232313E2,0E0,1.2382027E1,1.7180946E1,1.1361618E0,1.2748745E1,0E0,0E0,0E0,0E0,6.2461605E0,0E0,0E0],"parents":[2147483647,0,0,2,2,3,3,4,4,5,5,10,10],"right_children":[2,-1,4,6,8,10,-1,-1,-1,-1,12,-1,-1],"split_conditions":[1.236E3,-5.535681E-2,9.34286E0,4.242E3,-1.9451567E0,1E0,-3.6904477E-2,3.4180973E-2,5.6018908E-2,-4.4070315E-3,9.5E1,1.700252E-2,6.506066E-2],"split_indices":[9,0,13,9,18,34,0,0,0,0,37,0,0],"split_type":[0,0,0,0,0,0,0,0,0,0,0,0,0],"sum_hessian":[1.5698708E2,4.6065063E1,1.10922005E2,5.9754807E1,5.1167202E1,4.853486E1,1.1219949E1,1.4992196E1,3.6175003E1,1.7613415E1,3.0921444E1,1.1453376E1,1.9468067E1],"tree_param":{"num_deleted":"0","num_feature":"52","num_nodes":"13","size_leaf_vector":"1"}},{"base_weights":[1.0803918E-1,-5.6774735E-2,6.9148225E-1,-1.2635595E-2,8.296742E-1,6.063817E-1,1.2180575E0,-1.7951632E-2,8.1457615E-1,4.874375E-2,7.115916E-2,9.5734763E-1,2.2001756E-2,3.0489761E-2,5.4201424E-2],"categories":[],"categories_nodes":[],"categories_segments":[],"categories_sizes":[],"default_left":[0,0,0,0,0,0,0,0,0,0,0,0,0,0,0],"id":31,"left_children":[1,-1,3,-1,5,7,9,-1,11,-1,-1,13,-1,-1,-1],"loss_changes":[1.1567555E2,0E0,1.4354351E1,0E0,7.482567E0,1.2790922E1,2.893715E-1,0E0,2.330391E0,0E0,0E0,9.4184494E-1,0E0,0E0,0E0],"parents":[2147483647,0,0,2,2,4,4,5,5,6,6,8,8,11,11],"right_children":[2,-1,4,-1,6,8,10,-1,12,-1,-1,14,-1,-1,-1],"split_conditions":[1.0858349E0,-5.6774735E-2,1E0,-1.2635595E-2,1.5658064E0,-6.8329656E-1,1.0386E4,-1.7951632E-2,7.6E1,4.874375E-2,7.115916E-2,-1.6033142E0,2.2001756E-2,3.0489761E-2,5.4201424E-2],"split_indices":[13,0,7,0,22,20,29,0,37,0,0,17,0,0,0],"split_type":[0,0,0,0,0,0,0,0,0,0,0,0,0,0,0],"sum_hessian":[1.5735347E2,4.994849E1,1.07404976E2,1.3606959E1,9.379802E1,6.1183308E1,3.2614708E1,1.0725198E1,5.045811E1,1.7555147E1,1.5059563E1,3.5405727E1,1.5052385E1,1.1010834E1,2.4394894E1],"tree_param":{"num_deleted":"0","num_feature":"52","num_nodes":"15","size_leaf_vector":"1"}},{"base_weights":[8.758885E-2,-9.06364E-1,6.986743E-1,-5.734552E-2,1.3336988E-2,6.644905E-2,1.0239934E0,6.90054E-1,-5.6216538E-2,1.1274531E0,3.3264633E-2,1.2420585E-2,5.780564E-2,3.873184E-2,6.061806E-2],"categories":[],"categories_nodes":[],"categories_segments":[],"categories_sizes":[],"default_left":[0,0,0,0,0,0,0,0,0,0,0,0,0,0,0],"id":32,"left_children":[1,3,5,-1,-1,7,9,11,-1,13,-1,-1,-1,-1,-1],"loss_changes":[9.78478E1,1.7624287E1,2.0433788E1,0E0,0E0,2.671792E1,1.6897888E0,4.5596514E0,0E0,5.463753E-1,0E0,0E0,0E0,0E0,0E0],"parents":[2147483647,0,0,1,1,2,2,5,5,6,6,7,7,9,9],"right_children":[2,4,6,-1,-1,8,10,12,-1,14,-1,-1,-1,-1,-1],"split_conditions":[1E0,1.0164515E0,-2.6508966E-1,-5.734552E-2,1.3336988E-2,9.219E3,2E0,2.0821042E0,-5.6216538E-2,2.84E2,3.3264633E-2,1.2420585E-2,5.780564E-2,3.873184E-2,6.061806E-2],"split_indices":[7,16,20,0,0,25,12,17,0,27,0,0,0,0,0],"split_type":[0,0,0,0,0,0,0,0,0,0,0,0,0,0,0],"sum_hessian":[1.5905289E2,6.037216E1,9.8680725E1,5.0117775E1,1.0254385E1,3.3935234E1,6.474549E1,2.2547651E1,1.1387581E1,4.858812E1,1.6157377E1,1.2364204E1,1.0183447E1,1.1388612E1,3.7199505E1],"tree_param":{"num_deleted":"0","num_feature":"52","num_nodes":"15","size_leaf_vector":"1"}},{"base_weights":[-5.4439526E-2,-5.7675596E-2,5.91195E-1,8.713083E-1,-2.0683588E-1,1.854682E-2,9.9825186E-1,-6.11328E-2,3.507118E-2,1.0934482E0,3.226992E-2,4.333244E-2,6.326573E-2],"categories":[],"categories_nodes":[],"categories_segments":[],"categories_sizes":[],"default_left":[0,0,0,0,0,0,0,0,0,0,0,0,0],"id":33,"left_children":[1,-1,3,5,7,-1,9,-1,-1,11,-1,-1,-1],"loss_changes":[9.6480865E1,0E0,1.9339003E1,3.671486E0,2.214785E1,0E0,9.7929764E-1,0E0,0E0,3.8715363E-1,0E0,0E0,0E0],"parents":[2147483647,0,0,2,2,3,3,4,4,6,6,9,9],"right_children":[2,-1,4,6,8,-1,10,-1,-1,12,-1,-1,-1],"split_conditions":[1E0,-5.7675596E-2,5E0,-2.2976599E0,1.359019E4,1.854682E-2,5.4E1,-6.11328E-2,3.507118E-2,2E0,3.226992E-2,4.333244E-2,6.326573E-2],"split_indices":[7,0,5,22,4,0,38,0,0,34,0,0,0],"split_type":[0,0,0,0,0,0,0,0,0,0,0,0,0],"sum_hessian":[1.3400429E2,4.929763E1,8.470665E1,6.2630997E1,2.2075657E1,1.3467671E1,4.9163326E1,1.0257386E1,1.1818271E1,3.706476E1,1.2098567E1,1.8583744E1,1.8481012E1],"tree_param":{"num_deleted":"0","num_feature":"52","num_nodes":"13","size_leaf_vector":"1"}},{"base_weights":[2.1000119E-1,-1.0004008E0,7.713318E-1,-1.9938096E-2,-5.6964625E-2,8.592639E-1,-1.4562899E-3,1.699073E-2,9.4883704E-1,8.317446E-1,6.6069834E-2,1.781273E-2,9.5537215E-1,3.034456E-2,5.6126233E-2],"categories":[],"categories_nodes":[],"categories_segments":[],"categories_sizes":[],"default_left":[0,0,1,0,0,0,0,0,0,0,0,0,0,0,0],"id":34,"left_children":[1,3,5,-1,-1,7,-1,-1,9,11,-1,-1,13,-1,-1],"loss_changes":[1.0904862E2,3.8011818E0,7.7278748E0,0E0,0E0,4.267082E0,0E0,0E0,2.5467072E0,3.5561981E0,0E0,0E0,2.3485107E0,0E0,0E0],"parents":[2147483647,0,0,1,1,2,2,5,5,8,8,9,9,12,12],"right_children":[2,4,6,-1,-1,8,-1,-1,10,12,-1,-1,14,-1,-1],"split_conditions":[1E0,5E0,8.465E3,-1.9938096E-2,-5.6964625E-2,1E-1,-1.4562899E-3,1.699073E-2,1.1736E4,4.706E3,6.6069834E-2,1.781273E-2,-7.86625E-2,3.034456E-2,5.6126233E-2],"split_indices":[7,38,33,0,0,39,0,0,29,4,0,0,19,0,0],"split_type":[0,0,0,0,0,0,0,0,0,0,0,0,0,0,0],"sum_hessian":[1.5836311E2,4.99257E1,1.0843741E2,1.0089956E1,3.9835743E1,9.763817E1,1.0799242E1,1.5065369E1,8.25728E1,6.528635E1,1.7286451E1,1.427278E1,5.1013565E1,1.8038177E1,3.2975388E1],"tree_param":{"num_deleted":"0","num_feature":"52","num_nodes":"15","size_leaf_vector":"1"}},{"base_weights":[1.0488762E-1,-9.558735E-1,6.6715777E-1,-1.8128013E-2,-5.5485066E-2,8.750055E-1,2.105151E-1,2.0566037E-2,1.0115024E0,-1.9321097E-2,4.0776405E-2,3.3578876E-2,5.580292E-2],"categories":[],"categories_nodes":[],"categories_segments":[],"categories_sizes":[],"default_left":[0,0,0,0,0,0,0,0,0,0,0,0,0],"id":35,"left_children":[1,3,5,-1,-1,7,9,-1,11,-1,-1,-1,-1],"loss_changes":[8.030999E1,3.8587685E0,8.157925E0,0E0,0E0,3.386757E0,1.0719694E1,0E0,8.7592316E-1,0E0,0E0,0E0,0E0],"parents":[2147483647,0,0,1,1,2,2,5,5,6,6,8,8],"right_children":[2,4,6,-1,-1,8,10,-1,12,-1,-1,-1,-1],"split_conditions":[1E0,1.383E3,5E0,-1.8128013E-2,-5.5485066E-2,-2.3115553E-1,6.75171E0,2.0566037E-2,4E-1,-1.9321097E-2,4.0776405E-2,3.3578876E-2,5.580292E-2],"split_indices":[7,33,5,0,0,15,13,0,39,0,0,0,0],"split_type":[0,0,0,0,0,0,0,0,0,0,0,0,0],"sum_hessian":[1.3258096E2,4.5687794E1,8.689317E1,1.0097745E1,3.559005E1,5.908403E1,2.7809143E1,1.4349998E1,4.473403E1,1.4179861E1,1.3629282E1,1.2269021E1,3.246501E1],"tree_param":{"num_deleted":"0","num_feature":"52","num_nodes":"13","size_leaf_vector":"1"}},{"base_weights":[2.3830414E-1,-5.408748E-2,6.6461074E-1,7.0418656E-2,5.4469E-1,-3.241384E-2,7.316345E-1,4.4259713E-3,8.893032E-1,1.1263448E0,6.4776814E-1,4.1274343E-2,6.289529E-2,2.518255E-3,5.3920355E-2],"categories":[],"categories_nodes":[],"categories_segments":[],"categories_sizes":[],"default_left":[0,0,0,0,0,0,0,0,0,0,0,0,0,0,0],"id":36,"left_children":[1,-1,3,-1,5,-1,7,-1,9,11,13,-1,-1,-1,-1],"loss_changes":[8.555042E1,0E0,9.451305E0,0E0,2.2840696E1,0E0,8.760483E0,0E0,3.272335E0,3.0435562E-1,9.457928E0,0E0,0E0,0E0,0E0],"parents":[2147483647,0,0,2,2,4,4,6,6,8,8,9,9,10,10],"right_children":[2,-1,4,-1,6,-1,8,-1,10,12,14,-1,-1,-1,-1],"split_conditions":[1.299E3,-5.408748E-2,1.663E3,7.0418656E-2,2.4495E3,-3.241384E-2,-9.129014E-1,4.4259713E-3,4.3895E3,2.9655E3,1.0049365E1,4.1274343E-2,6.289529E-2,2.518255E-3,5.3920355E-2],"split_indices":[9,0,4,0,9,0,20,0,9,9,13,0,0,0,0],"split_type":[0,0,0,0,0,0,0,0,0,0,0,0,0,0,0],"sum_hessian":[1.4974516E2,3.6179195E1,1.1356597E2,1.4276608E1,9.928936E1,1.3116979E1,8.617238E1,1.727417E1,6.889821E1,3.292372E1,3.5974487E1,1.2230095E1,2.0693626E1,1.5537324E1,2.0437166E1],"tree_param":{"num_deleted":"0","num_feature":"52","num_nodes":"15","size_leaf_vector":"1"}},{"base_weights":[3.2215393E-1,-5.3694166E-2,7.472866E-1,9.0672386E-1,3.0017543E-1,6.0866225E-1,1.1004555E0,-3.5363827E-2,7.629308E-1,-5.791513E-4,8.7151474E-1,7.6312673E-1,1.3134844E0,1.882041E-2,5.250419E-2,5.2678008E-2,2.7747089E-2,2.070727E-2,5.430123E-2,4.763742E-2,7.73156E-2],"categories":[],"categories_nodes":[],"categories_segments":[],"categories_sizes":[],"default_left":[0,0,0,0,0,0,0,0,0,0,0,0,0,0,0,0,0,0,0,0,0],"id":37,"left_children":[1,-1,3,5,7,9,11,-1,13,-1,15,17,19,-1,-1,-1,-1,-1,-1,-1,-1],"loss_changes":[9.403573E1,0E0,8.35408E0,4.4524155E0,1.6065712E1,6.071886E0,2.7720795E0,0E0,2.1910496E0,0E0,9.2107964E-1,2.110138E0,1.1142006E0,0E0,0E0,0E0,0E0,0E0,0E0,0E0,0E0],"parents":[2147483647,0,0,2,2,3,3,4,4,5,5,6,6,8,8,10,10,11,11,12,12],"right_children":[2,-1,4,6,8,10,12,-1,14,-1,16,18,20,-1,-1,-1,-1,-1,-1,-1,-1],"split_conditions":[1.296E3,-5.3694166E-2,1.1E1,1E0,5.571855E0,2.274E3,-2.6311436E-1,-3.5363827E-2,1.3117024E1,-5.791513E-4,-1.6498676E-1,2.5030756E0,2E0,1.882041E-2,5.250419E-2,5.2678008E-2,2.7747089E-2,2.070727E-2,5.430123E-2,4.763742E-2,7.73156E-2],"split_indices":[9,0,0,30,13,9,22,0,13,0,18,16,12,0,0,0,0,0,0,0,0],"split_type":[0,0,0,0,0,0,0,0,0,0,0,0,0,0,0,0,0,0,0,0,0],"sum_hessian":[1.5609024E2,3.6081375E1,1.2000887E2,8.7705605E1,3.2303265E1,3.618136E1,5.1524246E1,1.0001304E1,2.2301964E1,1.1053849E1,2.5127508E1,2.1717346E1,2.98069E1,1.0491155E1,1.1810808E1,1.4475402E1,1.0652105E1,1.1534107E1,1.018324E1,1.3689252E1,1.6117647E1],"tree_param":{"num_deleted":"0","num_feature":"52","num_nodes":"21","size_leaf_vector":"1"}},{"base_weights":[9.9211276E-2,-5.2679338E-2,5.149543E-1,9.4525874E-1,1.7317775E-1,6.12689E-1,6.522661E-2,-2.9721233E-1,4.4361956E-2,5.3628734E-3,5.1738936E-2,-5.664118E-2,1.8000392E-2],"categories":[],"categories_nodes":[],"categories_segments":[],"categories_sizes":[],"default_left":[0,0,0,0,0,0,0,0,0,0,0,0,0],"id":38,"left_children":[1,-1,3,5,7,9,-1,11,-1,-1,-1,-1,-1],"loss_changes":[5.9200283E1,0E0,1.3163952E1,3.9670944E0,1.7639465E1,4.7106886E0,0E0,1.7946295E1,0E0,0E0,0E0,0E0,0E0],"parents":[2147483647,0,0,2,2,3,3,4,4,5,5,7,7],"right_children":[2,-1,4,6,8,10,-1,12,-1,-1,-1,-1,-1],"split_conditions":[1.236E3,-5.2679338E-2,-2.1151233E0,1.0411E4,9.34286E0,2.521987E0,6.522661E-2,1.1E0,4.4361956E-2,5.3628734E-3,5.1738936E-2,-5.664118E-2,1.8000392E-2],"split_indices":[9,0,17,25,13,20,0,39,0,0,0,0,0],"split_type":[0,0,0,0,0,0,0,0,0,0,0,0,0],"sum_hessian":[1.2139033E2,3.1767956E1,8.962237E1,3.8891445E1,5.0730923E1,2.1601175E1,1.7290272E1,3.0935705E1,1.9795218E1,1.040082E1,1.1200356E1,1.3300877E1,1.763483E1],"tree_param":{"num_deleted":"0","num_feature":"52","num_nodes":"13","size_leaf_vector":"1"}},{"base_weights":[8.3052106E-2,-7.4516535E-1,6.692134E-1,-1.0328429E0,1.9674284E-2,5.574103E-3,8.28733E-1,-2.9556587E-2,-6.0569465E-2,5.414786E-1,6.1140873E-2,4.7893144E-2,-1.3412625E-3],"categories":[],"categories_nodes":[],"categories_segments":[],"categories_sizes":[],"default_left":[0,0,0,0,0,0,0,0,0,0,0,0,0],"id":39,"left_children":[1,3,5,7,-1,-1,9,-1,-1,11,-1,-1,-1],"loss_changes":[5.9954094E1,1.7187021E1,6.334881E0,2.5309753E0,0E0,0E0,5.6793976E0,0E0,0E0,8.117626E0,0E0,0E0,0E0],"parents":[2147483647,0,0,1,1,2,2,3,3,6,6,9,9],"right_children":[2,4,6,8,-1,-1,10,-1,-1,12,-1,-1,-1],"split_conditions":[3.4071312E0,7.9446846E-1,-1.7880639E0,2E0,1.9674284E-2,5.574103E-3,2.2925985E0,-2.9556587E-2,-6.0569465E-2,5.5E1,6.1140873E-2,4.7893144E-2,-1.3412625E-3],"split_indices":[13,16,22,12,0,0,19,0,0,24,0,0,0],"split_type":[0,0,0,0,0,0,0,0,0,0,0,0,0],"sum_hessian":[1.21470055E2,5.0228443E1,7.1241615E1,4.0172005E1,1.005644E1,1.6222265E1,5.501935E1,1.2804752E1,2.7367252E1,3.3196148E1,2.1823198E1,1.8763239E1,1.4432909E1],"tree_param":{"num_deleted":"0","num_feature":"52","num_nodes":"13","size_leaf_vector":"1"}},{"base_weights":[9.051586E-2,-5.238523E-2,5.069737E-1,7.489252E-1,-7.737497E-2,9.026255E-1,1.3223323E-2,-2.6332289E-2,3.2961067E-2,1.9732505E-2,1.0519848E0,4.0374137E-2,6.380116E-2],"categories":[],"categories_nodes":[],"categories_segments":[],"categories_sizes":[],"default_left":[0,0,0,0,0,0,0,0,0,0,0,0,0],"id":40,"left_children":[1,-1,3,5,7,9,-1,-1,-1,-1,11,-1,-1],"loss_changes":[6.0316414E1,0E0,1.3208412E1,4.6661186E0,9.6601095E0,3.3473701E0,0E0,0E0,0E0,0E0,1.0360184E0,0E0,0E0],"parents":[2147483647,0,0,2,2,3,3,4,4,5,5,10,10],"right_children":[2,-1,4,6,8,10,-1,-1,-1,-1,12,-1,-1],"split_conditions":[1.2795E3,-5.238523E-2,5E0,3.0362344E0,1.0049365E1,5.8E1,1.3223323E-2,-2.6332289E-2,3.2961067E-2,1.9732505E-2,-4.8648766E-1,4.0374137E-2,6.380116E-2],"split_indices":[9,0,5,14,13,37,0,0,0,0,22,0,0],"split_type":[0,0,0,0,0,0,0,0,0,0,0,0,0],"sum_hessian":[1.251237E2,3.311135E1,9.201236E1,6.487076E1,2.71416E1,4.8591393E1,1.6279364E1,1.7035933E1,1.0105667E1,1.1868514E1,3.672288E1,1.9761057E1,1.6961823E1],"tree_param":{"num_deleted":"0","num_feature":"52","num_nodes":"13","size_leaf_vector":"1"}},{"base_weights":[1.2249125E-1,-5.2699994E-2,5.3423166E-1,2.511467E-1,9.5033705E-1,-3.9494416E-1,8.3729494E-1,1.1843642E0,2.199183E-2,2.0820213E-2,-5.1906157E-2,5.4815676E-2,1.9123508E-2,7.090124E-2,4.082048E-2],"categories":[],"categories_nodes":[],"categories_segments":[],"categories_sizes":[],"default_left":[0,0,0,0,0,0,0,0,0,0,0,0,0,0,0],"id":41,"left_children":[1,-1,3,5,7,9,11,13,-1,-1,-1,-1,-1,-1,-1],"loss_changes":[5.8871483E1,0E0,1.0342514E1,2.1090672E1,3.7812424E0,1.4394347E1,3.004551E0,9.143753E-1,0E0,0E0,0E0,0E0,0E0,0E0,0E0],"parents":[2147483647,0,0,2,2,3,3,4,4,5,5,6,6,7,7],"right_children":[2,-1,4,6,8,10,12,14,-1,-1,-1,-1,-1,-1,-1],"split_conditions":[1.299E3,-5.2699994E-2,1.04462E0,8.052709E0,4.443E3,7.758E3,4E-1,5.458403E0,2.199183E-2,2.0820213E-2,-5.1906157E-2,5.4815676E-2,1.9123508E-2,7.090124E-2,4.082048E-2],"split_indices":[9,0,22,13,36,25,39,13,0,0,0,0,0,0,0],"split_type":[0,0,0,0,0,0,0,0,0,0,0,0,0,0,0],"sum_hessian":[1.193702E2,3.054169E1,8.8828514E1,5.3818356E1,3.5010155E1,2.5755342E1,2.8063013E1,2.3100334E1,1.19098215E1,1.1544691E1,1.4210651E1,1.698169E1,1.1081323E1,1.2383006E1,1.0717328E1],"tree_param":{"num_deleted":"0","num_feature":"52","num_nodes":"15","size_leaf_vector":"1"}},{"base_weights":[1.6105892E-1,-5.1761735E-2,5.479776E-1,2.5954148E-1,8.9285237E-1,-5.8706902E-2,5.2069206E-2,1.1151493E0,2.2980604E-2,-4.999326E-1,3.6806237E-2,3.262766E-2,6.894495E-2,2.5713735E-3,-5.779366E-2],"categories":[],"categories_nodes":[],"categories_segments":[],"categories_sizes":[],"default_left":[0,0,0,0,0,0,0,0,0,0,0,0,0,0,0],"id":42,"left_children":[1,-1,3,5,7,9,-1,11,-1,13,-1,-1,-1,-1,-1],"loss_changes":[5.549789E1,0E0,8.753347E0,1.2650786E1,3.4099197E0,1.3311149E1,0E0,2.2987862E0,0E0,8.857844E0,0E0,0E0,0E0,0E0,0E0],"parents":[2147483647,0,0,2,2,3,3,4,4,5,5,7,7,9,9],"right_children":[2,-1,4,6,8,10,-1,12,-1,14,-1,-1,-1,-1,-1],"split_conditions":[1.2795E3,-5.1761735E-2,1.0190761E0,7.2E1,4.2E1,8.246018E0,5.2069206E-2,6.160793E-1,2.2980604E-2,1.1147125E0,3.6806237E-2,3.262766E-2,6.894495E-2,2.5713735E-3,-5.779366E-2],"split_indices":[9,0,20,24,32,13,0,16,0,14,0,0,0,0,0],"split_type":[0,0,0,0,0,0,0,0,0,0,0,0,0,0,0],"sum_hessian":[1.1767437E2,2.8348755E1,8.9325615E1,4.959739E1,3.9728226E1,3.5906563E1,1.36908245E1,2.52159E1,1.4512325E1,2.332786E1,1.2578704E1,1.0417891E1,1.479801E1,1.31750145E1,1.0152844E1],"tree_param":{"num_deleted":"0","num_feature":"52","num_nodes":"15","size_leaf_vector":"1"}},{"base_weights":[2.2649494E-1,-5.1496238E-2,5.89018E-1,2.5682044E-1,9.899823E-1,-4.0031636E-1,8.610462E-1,6.775488E-2,8.2309306E-1,-5.2722294E-2,2.8972814E-2,5.634814E-2,3.2131344E-2,2.3218488E-2,4.9189575E-2],"categories":[],"categories_nodes":[],"categories_segments":[],"categories_sizes":[],"default_left":[0,0,0,0,0,0,0,0,0,0,0,0,0,0,0],"id":43,"left_children":[1,-1,3,5,7,9,11,-1,13,-1,-1,-1,-1,-1,-1],"loss_changes":[5.604957E1,0E0,1.2413403E1,2.1532486E1,1.4890022E0,1.7430962E1,9.0888786E-1,0E0,1.3809433E0,0E0,0E0,0E0,0E0,0E0,0E0],"parents":[2147483647,0,0,2,2,3,3,4,4,5,5,6,6,8,8],"right_children":[2,-1,4,6,8,10,12,-1,14,-1,-1,-1,-1,-1,-1],"split_conditions":[1.236E3,-5.1496238E-2,9.1426617E-1,6.7118897E0,1.661E3,1.0333787E0,-6.100636E0,6.775488E-2,4E-1,-5.2722294E-2,2.8972814E-2,5.634814E-2,3.2131344E-2,2.3218488E-2,4.9189575E-2],"split_indices":[9,0,20,13,9,16,16,0,39,0,0,0,0,0,0],"split_type":[0,0,0,0,0,0,0,0,0,0,0,0,0,0,0],"sum_hessian":[1.20723885E2,2.6620945E1,9.4102936E1,5.2361843E1,4.1741093E1,2.5244354E1,2.7117489E1,1.0860683E1,3.0880411E1,1.5092125E1,1.0152229E1,1.0353225E1,1.6764263E1,1.0757156E1,2.0123255E1],"tree_param":{"num_deleted":"0","num_feature":"52","num_nodes":"15","size_leaf_vector":"1"}},{"base_weights":[1.9263189E-1,-5.1297307E-2,5.1719755E-1,1.1237322E0,2.895679E-1,3.5558194E-2,6.6099636E-2,-3.041092E-2,5.0709224E-1,2.201487E-1,5.1947553E-2,6.552011E-1,-2.9407779E-2,4.6289448E-2,9.054413E-3],"categories":[],"categories_nodes":[],"categories_segments":[],"categories_sizes":[],"default_left":[0,0,0,0,0,0,0,0,0,0,0,0,0,0,0],"id":44,"left_children":[1,-1,3,5,7,-1,-1,-1,9,11,-1,13,-1,-1,-1],"loss_changes":[5.0863667E1,0E0,1.36412525E1,1.2894211E0,1.4936077E1,0E0,0E0,0E0,9.056114E0,1.47283745E1,0E0,3.294714E0,0E0,0E0,0E0],"parents":[2147483647,0,0,2,2,3,3,4,4,8,8,9,9,11,11],"right_children":[2,-1,4,6,8,-1,-1,-1,10,12,-1,14,-1,-1,-1],"split_conditions":[1.236E3,-5.1297307E-2,1.661E3,-2.449386E0,2.466E3,3.5558194E-2,6.6099636E-2,-3.041092E-2,1.2514426E0,4.3895E3,5.1947553E-2,-6.724892E-1,-2.9407779E-2,4.6289448E-2,9.054413E-3],"split_indices":[9,0,9,14,9,0,0,0,22,9,0,14,0,0,0],"split_type":[0,0,0,0,0,0,0,0,0,0,0,0,0,0,0],"sum_hessian":[1.26261566E2,2.6101776E1,1.0015979E2,2.6257704E1,7.390209E1,1.0011464E1,1.6246239E1,1.4063176E1,5.9838913E1,3.9787212E1,2.0051702E1,2.5988743E1,1.3798469E1,1.5939182E1,1.004956E1],"tree_param":{"num_deleted":"0","num_feature":"52","num_nodes":"15","size_leaf_vector":"1"}},{"base_weights":[2.0146498E-1,-8.878573E-1,5.9675574E-1,-5.391417E-2,-2.0365635E-2,2.4767195E-1,1.0274444E0,6.542932E-1,-2.1457832E-2,1.1653597E0,3.249529E-2,1.4241836E-2,4.855667E-2,4.043188E-2,6.610744E-2],"categories":[],"categories_nodes":[],"categories_segments":[],"categories_sizes":[],"default_left":[0,1,0,0,0,0,0,0,0,0,0,0,0,0,0],"id":45,"left_children":[1,3,5,-1,-1,7,9,11,-1,13,-1,-1,-1,-1,-1],"loss_changes":[5.3570915E1,2.598837E0,1.3424068E1,0E0,0E0,1.4473058E1,1.3468056E0,3.5407515E0,0E0,5.1582336E-1,0E0,0E0,0E0,0E0,0E0],"parents":[2147483647,0,0,1,1,2,2,5,5,6,6,7,7,9,9],"right_children":[2,4,6,-1,-1,8,10,12,-1,14,-1,-1,-1,-1,-1],"split_conditions":[1E0,6.622E3,7.644318E-1,-5.391417E-2,-2.0365635E-2,5.5E1,5.337113E0,9.497171E-1,-2.1457832E-2,6.5E1,3.249529E-2,1.4241836E-2,4.855667E-2,4.043188E-2,6.610744E-2],"split_indices":[7,33,22,0,0,24,14,18,0,28,0,0,0,0,0],"split_type":[0,0,0,0,0,0,0,0,0,0,0,0,0,0,0],"sum_hessian":[1.2217973E2,3.2199604E1,8.9980125E1,2.2170279E1,1.0029326E1,5.0568314E1,3.941181E1,3.1610708E1,1.8957605E1,2.7338348E1,1.2073463E1,1.5470309E1,1.6140398E1,1.0227192E1,1.7111156E1],"tree_param":{"num_deleted":"0","num_feature":"52","num_nodes":"15","size_leaf_vector":"1"}},{"base_weights":[1.3383055E-1,-7.3766375E-1,5.71807E-1,-5.417579E-2,9.88277E-3,2.1038841E-2,8.355683E-1,-3.0049076E-2,3.783352E-2,5.802026E-1,5.957144E-2,4.393555E-2,-2.4817276E-4],"categories":[],"categories_nodes":[],"categories_segments":[],"categories_sizes":[],"default_left":[0,0,0,0,0,0,0,0,0,1,0,0,0],"id":46,"left_children":[1,3,5,-1,-1,7,9,-1,-1,11,-1,-1,-1],"loss_changes":[4.324692E1,1.2494568E1,1.0911812E1,0E0,0E0,1.2071842E1,3.9293442E0,0E0,0E0,5.515809E0,0E0,0E0,0E0],"parents":[2147483647,0,0,1,1,2,2,5,5,6,6,9,9],"right_children":[2,4,6,-1,-1,8,10,-1,-1,12,-1,-1,-1],"split_conditions":[1E0,1.0141515E0,5.36E2,-5.417579E-2,9.88277E-3,1.6168234E0,3.8701665E-1,-3.0049076E-2,3.783352E-2,1.0444E4,5.957144E-2,4.393555E-2,-2.4817276E-4],"split_indices":[7,14,27,0,0,20,22,0,0,29,0,0,0],"split_type":[0,0,0,0,0,0,0,0,0,0,0,0,0],"sum_hessian":[1.1119752E2,3.6963184E1,7.423433E1,2.6869305E1,1.0093881E1,2.4388245E1,4.984609E1,1.331373E1,1.1074513E1,3.0552217E1,1.929387E1,1.989938E1,1.0652837E1],"tree_param":{"num_deleted":"0","num_feature":"52","num_nodes":"13","size_leaf_vector":"1"}},{"base_weights":[1.143676E-1,-5.0549775E-2,3.9360294E-1,6.048707E-1,-2.9142198E-1,-6.800434E-3,7.368161E-1,-6.28635E-2,3.4524456E-2,9.0255536E-4,9.309276E-1,2.7869528E-2,1.1177216E0,6.612663E-2,3.0810801E-2],"categories":[],"categories_nodes":[],"categories_segments":[],"categories_sizes":[],"default_left":[0,0,0,1,0,0,0,0,0,0,0,0,0,0,0],"id":47,"left_children":[1,-1,3,5,7,-1,9,-1,-1,-1,11,-1,13,-1,-1],"loss_changes":[3.745171E1,0E0,1.3952986E1,7.244211E0,2.2788095E1,0E0,8.659752E0,0E0,0E0,0E0,2.7921066E0,0E0,2.4342651E0,0E0,0E0],"parents":[2147483647,0,0,2,2,3,3,4,4,6,6,10,10,12,12],"right_children":[2,-1,4,6,8,-1,10,-1,-1,-1,12,-1,14,-1,-1],"split_conditions":[1.2795E3,-5.0549775E-2,1.1E1,4.9E1,9.34286E0,-6.800434E-3,-1.7880639E0,-6.28635E-2,3.4524456E-2,9.0255536E-4,1E0,2.7869528E-2,2.7452528E-1,6.612663E-2,3.0810801E-2],"split_indices":[9,0,0,31,13,0,22,0,0,0,34,0,19,0,0],"split_type":[0,0,0,0,0,0,0,0,0,0,0,0,0,0,0],"sum_hessian":[1.169151E2,2.2721846E1,9.419325E1,7.2080124E1,2.2113134E1,1.0891739E1,6.118838E1,1.1006378E1,1.1106756E1,1.3243337E1,4.7945045E1,1.7311249E1,3.0633797E1,2.0588491E1,1.0045305E1],"tree_param":{"num_deleted":"0","num_feature":"52","num_nodes":"15","size_leaf_vector":"1"}},{"base_weights":[2.799595E-1,-5.026665E-2,5.509955E-1,7.614604E-1,1.038954E-2,8.994357E-1,1.5445341E-2,-3.292155E-2,4.510122E-2,1.7879782E-2,1.0465894E0,2.97785E-2,1.1952966E0,6.776157E-2,4.250436E-2],"categories":[],"categories_nodes":[],"categories_segments":[],"categories_sizes":[],"default_left":[0,0,0,0,0,0,0,0,0,0,0,0,0,0,0],"id":48,"left_children":[1,-1,3,5,7,9,-1,-1,-1,-1,11,-1,13,-1,-1],"loss_changes":[4.4463425E1,0E0,1.1909374E1,4.428772E0,1.8701508E1,4.189865E0,0E0,0E0,0E0,0E0,2.2725487E0,0E0,6.4068985E-1,0E0,0E0],"parents":[2147483647,0,0,2,2,3,3,4,4,5,5,10,10,12,12],"right_children":[2,-1,4,6,8,10,-1,-1,-1,-1,12,-1,14,-1,-1],"split_conditions":[1.236E3,-5.026665E-2,5E0,3.0362344E0,1.5658064E0,1.5136065E0,1.5445341E-2,-3.292155E-2,4.510122E-2,1.7879782E-2,-1.565079E0,2.97785E-2,3.7E1,6.776157E-2,4.250436E-2],"split_indices":[9,0,5,14,22,15,0,0,0,0,22,0,32,0,0],"split_type":[0,0,0,0,0,0,0,0,0,0,0,0,0,0,0],"sum_hessian":[1.2504611E2,2.130508E1,1.03741035E2,7.437669E1,2.936434E1,5.624205E1,1.8134642E1,1.6928053E1,1.2436285E1,1.2744636E1,4.3497417E1,1.2026574E1,3.1470842E1,1.9507318E1,1.1963523E1],"tree_param":{"num_deleted":"0","num_feature":"52","num_nodes":"15","size_leaf_vector":"1"}},{"base_weights":[2.4796431E-1,-5.454296E-2,7.0321894E-1,2.4438982E-1,8.819974E-1,-1.2529655E-2,4.2415336E-2,2.555552E-2,9.8828995E-1,3.849296E-2,5.522118E-2],"categories":[],"categories_nodes":[],"categories_segments":[],"categories_sizes":[],"default_left":[0,0,0,0,0,0,0,0,0,0,0],"id":49,"left_children":[1,-1,3,5,7,-1,-1,-1,9,-1,-1],"loss_changes":[6.923241E1,0E0,6.7104073E0,7.702978E0,1.875042E0,0E0,0E0,0E0,3.1298065E-1,0E0,0E0],"parents":[2147483647,0,0,2,2,3,3,4,4,8,8],"right_children":[2,-1,4,6,8,-1,-1,-1,10,-1,-1],"split_conditions":[1E0,-5.454296E-2,-8.765225E-1,8.895961E0,5.0594163E0,-1.2529655E-2,4.2415336E-2,2.555552E-2,-5.8353734E-1,3.849296E-2,5.522118E-2],"split_indices":[7,0,20,13,13,0,0,0,19,0,0],"split_type":[0,0,0,0,0,0,0,0,0,0,0],"sum_hessian":[1.1132923E2,2.7895967E1,8.3433266E1,2.405749E1,5.9375774E1,1.354268E1,1.0514811E1,1.4519911E1,4.485586E1,1.8218517E1,2.6637344E1],"tree_param":{"num_deleted":"0","num_feature":"52","num_nodes":"11","size_leaf_vector":"1"}}]},"name":"gbtree"},"learner_model_param":{"base_score":"[5E-1]","boost_from_average":"1","num_class":"0","num_feature":"52","num_target":"1"},"objective":{"name":"binary:logistic","reg_loss_param":{"scale_pos_weight":"9.5666666"}}},"version":[3,1,1]}